# shape: [5, 2048]
# scale: 0.00700597, zero_point: 0
    12     7     3     7   -15   -25   -22   -25   -35   -41   -29   -33   -31  -128   -79   -46    12    34     8     6   -41    34    70    22   -22    64     3   -13     0    10     4    -6   -10     1     9    -7   -36   -16    23   -13    -3   -10   -15    -4     3    -7    -1    14   -11     6   -30    -4     2    -8    -6    -8     9    14    16     5    22    -4    10    26   -13   -11     3     9   -45   -16    25     6   -10    -5    10    -1    28    27    14   -14     0     6    11    -4    12   -21    29    -1   -13   -40    46    16    -2     9    28    36    -5    43    29   -19   -26   -78     5    34   -21  -111   -35    -4     1   -10    19    21   -42    29    17     9   -13    18    19    -6    10     0    23    -3     4   -19     9   -19    -3    30     2    26    30    36    22    23   -33     8    -5     8     4     6    -1   -11    36   -20   -11    14     0     3   -26    -4   -16   -27   -84   -33   -20   -21     6    -1    -4    51    30    19   -10    18    15    33    18    44    -3   -27    -6    18    30   -45     9    11    19     1    -9     5     8   -35     2    21     7     2    24    40    10    40     4     6     3    -2     6   -12    -5    19    -7    52    46    43    -6    -7    42     8    21   -23   -66     0     8    10    12    12    20     8   -31    -9    11   -22    -7    -8    21    25    15    11    -5    21   -18   -18    25   -45   -37    14    25   -34   -19     5   -17   -38    -9     2   -50   -50   -23    19   -19   -69   -19    13     8    14    11    13     5    -1    -2   -29    -6   -49    12     8   -73   -69    -9   -11    -4    19    -5    -6     9    -4    24    -7   -15    17    35    17   -52     4    34    17    -7    -7    -4   -11     4   -24    19   -25    -8    -8    38    33    -1    13    56    65     6     0    42     7   -42   -62   -70    14    -5   -31    37    -1    40   -37   -50     1    20    -5   -25    23    17    19     4     2    22    24     5     6    25    34    -1     4    -5    -3    -3     0    11    40    13    27    22     9    22    33   -21     5    29    29   -32     4     2   -24    12    24     6    -4    24    24    21   -49    18     9     0    -7   -19   -21    -6    11    -4   -35   -10   -20    -3   -13    -6    16   -32   -32   -13   -13    -9   -81  -100   -31   -36   -56   -60   -25   -28   -97  -120    -6     9   -10   -18     0    -1    -9   -12    29   -17     8   -30   -13   -13     8   -62   -13   -71   -56  -102    -5   -26   -55   -24   -10    11     4    25    14   -21    24    33    28    14    57    55    14    11    24    20    28   -10     2     0    13    12   -38    -2   -27     5   -26   -22   -31    -1     0    -6    -8     0    -3    19     8     3     8     4     9    28     7   -33     8   -20    14    33   -14     8     5     7    -6   -27    19    42   -29   -15    39    44    19   -24     5   -30   -18   -31   -19   -18   -38   -20   -43   -59    -3     2   -28   -18   -41    16    -5   -32    30     6   -11     3    -4    35     0   -30   -14    14    21    19     0    21    16   -17   -43    10    13   -14    -1     2     5    41    21    -3   -25   -16    20     5    13    25     0    21    -3   -13     2    -6    12     4     2    12     5    10    27    14    -2     0     3   -10    31    25     9   -16    19    -4   -28    49    55   -10   -59     7    -6     4    11     3   -23   -14    -9    27    17    19    42   -23   -20    24    22    12   -25   -72   -25     3    13    18    23     0    12    29    15   -10    -2    14    21    11   -17    -3    -4     3    13    24   -25   -22    12     5    13    10    32    22    -4   -43    -7    11    -4   -16    20    24     8   -12    35    28   -27    -8   -36   -18    28    37   -76   -50    20     3    -5     4    24   -14   -70   -65   -12    -9   -22   -24   -38     6   -19    -8    -4     0    24     6   -14   -13   -11     1    31   -18    14    27    39   -44   -18    16   -10   -36   -44   -38   -29   -56   -44   -12    25    -6   -54   -40   -14    25   -23   -12    23    14     3    11    22     3     2    37    22    14    30    43    73     7    36    25    61    28     6     2    -1    -8    22    25   -21    16     3    29    28    -8    11    32    16     9    17     4    -5   -10    11   -12    -6    12    19   -16    -7    21    -9     6   -11     2    -1    18    13   -18    -7    27    47    27    -3    20     4    28   -21   -10    -2    -3     2    -1   -10    -2    24    -9   -38     8   -34   -39   -61    14   -36   -24     4     3     1   -11     3   -45   -67   -51    -8   -50   -36   -47     1     0     7   -18    14    27    33    17    -5   -30     2    -6    30   -52     0   -10    -1    50    34     0    -8     5    10   -20   -17    15    15   -17   -23     6    -2   -11    -2   -24   -11   -23    12    11    -3    -9    23     7    10   -48    19   -15   -25   -61     3    -2   -42   -38   -34     6    38    27    16   -18     5    11    29    13    20    15    29     2    -2   -29    -5     4    -8    -9   -37   -19    45    40     6   -18    16    29    38   -51    10    34     6    -8   -42    41     9   -14    21    16   -39   -21     7    51   -24    -9    31    20   -19    -2    60    55    -2     3    38    54    60    20    57    54    48     5     8   -17   -17    -9   -50   -10     5   -17   -54    -3   -48   -34     4   -15     3    -5    -1   -11    -2    25    37    28     8     4    41    13   -25    23   -22    20     2    -7   -20     4   -11   -15   -49    -5    14    -6   -29   -33   -15     7   -22   -56   -40    -4    -7    16     0    13     1   -17   -42    36    11   -28    -8    31   -20   -44   -26    -6    -5    13    19     1   -26   -37   -11    20    -7   -89   -26     4   -30   -81   -65   -14    42    15     9    16   -24    -1     3    40    10    -6     6    24    25     4     3     1    -7   -23   -10     0    -3    -4     8    42    29    -9     6    62    51     8    -7    92    52     2   -12    18   -44   -48    -9     8    -5    -3    -5    -1   -89   -66   -29   -26   -59   -45     3   -31    13    39    15    -5     3    25    35   -10     0    19    17    -2    17    -8     4    13    -5     9    -3     3    -1    12     8   -29    -8   -28     4   -37   -35   -12   -11   -52   -23    21    33   -52   -64    34    37   -34   -32     8    15     0   -32   -25     2     4     3     2     3    52     4     7    -2    17    19     2    58    28     9     0   -10    -6   -36    28   -14   -27    20    34     6    -5   -23     7    -7    21     9   -25    -3   -19     9    16    21    40    -8   -16    12    31    19    20     8   -18     1   -10    14    -1    10   -26    -6    27   -19   -27   -11    21    25   -27     1    10    11   -28    -6     6    -1     2     6     4    -1    -8   -35    15    12    20   -41   -32   -29   -12    15    -7   -12     7    13     8   -17    -5   -16   -10    18   -10   -29   -38   -82   -69   -41    11    -2   -27     5    12   -11   -34   -69   -27   -42    -3     3    -4   -12     3    -8    33    24    -9   -31    15    36    13   -41   -33   -30    30   -12   -49   -30     4    15    -5    -3   -18    16   -14   -31    19    -7    57    17    37    32    33     5     3    24    -1    18    -3    10     0    31   -13     1    -8    -3   -42     5     3    25    13   -12    -8   -25   -10   -15   -18   -10    62   -39    10   -10   -46   -24     0   -20    -3     8    20    28     6    -5    -3     3    46    -1   -34    28    66    32   -18     9    33    -1   -13     0     2     9   -21    28     3   -22     4    20    -9   -23    42    13   -10    -3    16    17    25    20    10    23    18    26     1    11     6    -5    -9    -5     6     3    -7   -37     5     0    -9     3   -40   -15    16   -13   -20   -20     7    24     2   -12    -3    24    34    15    43    31    17     0   -23    24     6    -3   -24   -17    -8    12   -16     0     7    21   -43     7    17   -25   -32     8    15    24    -5    -8   -20    11   -12    -9    18    11   -19   -20     8    10    10   -20    43    27    13   -11    17   -21    18     9    13    -4     2    28   -30   -23    13   -16    -1    -5   -10    -6     3     7    -3   -26     4    22   -12   -21   -17     9   -29    -3     3     2    -7    -6     8     8     2     3     6     5    19    13    27     5    29    -9    16    17    -4   -14   -10    23     9     3     5   -18    33    38    35    31    30    15     3    -3   -12    17   -12     6    25   -16    15     2   -24    11     5   -35   -27   -45    12    10   -16   -23    -2   -21     8     9    11    24    25    31    13     1     7    -1    24    15   -13     5     8   -21   -11   -12    -9   -35     5     9   -18   -72   -36   -20   -28    33     6    -2   -13     0   -10   -27   -47    11    31     1    29     9    12    16    35    -7    15    39    44   -37     7    -3    23   -33     7    23    11   -23    17     4   -29     7    -8    10    26   -11    12   -22    -2   -12    -4     3   -27   -28   -22   -37   -21   -24   -30   -43   -18    24    -7    -4    28    17     9    18    22    30    -4    18    13    32    -8     4    -3    -8    15   -51   -31   -10    -2   -23   -13   -13     5   -52   -62   -28   -16    -9   -36   -35    -4    29     8    27   -14   -60   -48   -34   -23   -69   -32   -24    25    10   -10    10    -3   -23   -45   -39    26   -33   -57   -53    17   -49   -34   -14   -18   -60   -21   -13     1   -10    -8     1    28   -26   -27     8    33    12     9     0    26    25    29     3   -30   -13   -25   -20    -8   -11   -18    -3    -4    13    18   -33     0    32    19   -15    -5     5     8     4   -10   -21   -16    -3   -18   -24   -39    10    12   -45   -85   -33   -11     9     1    -3   -24   -27     9     3    29   -22    -4    -8    27    12     9     4    13   -21   -14   -11    17   -37   -11     2     1   -41   -80   -28    -8    10   -11     1    23    22     3     4    15    -6   -41   -49    53    19   -14   -17    12     3    -3    -2    -3    14     5    -2   -22    -5    16   -16    15    29    24    18   -16    30     2   -21     5    16    -3     2   -60   -28   -69    11    20    29   -14     1    64    77    25   -14    17    32     9   -20   -15    77   -15   -15    11    22    10    -7     3   -15   -12    -3   -20    -6     4     6   -17    27    11    17     4    25     6    23    28   -16    10    24   -13   -37   -27    -1    13   -62   -52    22   -12   -50   -67     4   -15   -17   -38    -3    18     4   -11     0    23    12   -21    -7    24    44    41    34    68    27    14     0    21     2    25    -8    11    34     5     1     4   -22     0    -2    -9     3    -1   -18    14     0    -5     2   -31   -21   -16   -36   -34    20     0    -2   -19   -13   -10   -33   -13    -4     0    36    -9    18     2    -8   -38   -42     4   -18    12     7   -16    -3    -5     4     7   -33    -3    29    24    -2   -14    83    66    21     6    10    18    11   -27   -26   -40   -22   -55    -3   -68    -2    27   -22    14    16    40    12   -37    11   -25    15   -10    -1   -18    12    25   -11   -22   -35    -9   -23     3   -35   -27   -13   -11   -92    -4   -33     9   -68   -63   -50    17     4   -98   -46    21    -4   -43   -35    31   -21    15    -6    17    19   -28   -25    13   -25  -104    -8    -5    16   -15   -40    -2   -39    12    26    -5    15   -22    -5    -3   -53   -78   -38    -1    -5    -4   -51   -10    19    11    -5   -41   -57   -31   -10    12   -52   -77    26    -1    -6    15    13    19    10    -1     8    13    13    23    38    13    41    13   -12    -3    16    14    -3   -14     8   -31    -8    21    19     0    -5    54    47   -12   -14     9    31     8     3     4   -11    10     5    -2   -45    38    16     6   -33   -22    26     7     0    25   -25    -9    13     7    13    29    43    46    37    20   -47   -43   -21   -10   -49   -62     4    15    22     6     0     2    23   -31   -15    -3   -13   -22   -22    -9    -1    36     3    16    22     6   -61    24    36    31   -16   -31   -53     7    24   -48   -20    36    26   -21   -28    -8   -26   -53   -79   -26    10   -22   -63    -6    30    -5    18    36   -11   -28   -34   -22   -20    17    21    57    33    -1    23    18    28    -4    -2   -62    -4
    14    18   -15    -1    11    12   -23   -17    15    17   -10    20     4   -58   -58   -19   -28   -11   -34     5    16     0    44    12    24     5    34    14     1     5    20    22    11   -10     8    -5    -1    -2    14     6    25    20     3    19   -10     6     0    11   -43    11    10   -11    12    -6    22    16    44    38    43    28    21    41    49    33    -3    17   -27   -34   -15    22   -21   -29   -12    35   -48   -12   -21    27    23    18   -20    -1   -11   -16    -4    37    34     2    -7    41    20    73    15    54    26    65    12   -17    13    31     6   -10   -83     6     1   -35   -37   -33    17   -38   -18   -21     8   -21   -10    18    18   -12   -25    18    -5   -12   -32   -12    -7   -49   -28    21   -43   -23   -25   -19   -30   -53   -48     0   -46   -68   -70   -40   -25   -21   -33    17    -9   -75    -1    -2   -21   -11    -4   -24    -8    13    23   -15     2     3     6     6   -11   -59    -6   -17   -16   -15    -2    15   -14   -39    -2    -2    30   -28   -28     2    -7    -9   -13     1    -8     9    -8    25   -33    29   -18   -33   -16   -23     1    -4   -24    -7   -11   -13   -30     8    20    12   -23   -20    17    -6   -10    21   -24    -8   -11    26    44    -9   -33     1    16   -17   -18    -7    11    27     9     4    36     6   -10   -31    -1    12   -36   -16   -36   -35   -35   -32   -49   -44   -21   -17     3    24    11     6     9     2     2   -22   -70    -6   -13   -50   -83   -31    -4   -29    -4     9    -8   -52   -59     3   -19   -44   -50   -25    17   -43   -13    34   -12    -7    -7     5   -12   -25    -5     2    22    30   -24   -34    60    17   -17   -40     3     3     7   -16    11     0   -17    -5    -9    13     0    13     8    15    30    14    22    21     7    22    30   -35   -23    20    -7   -63   -80    18   -46   -31   -75    10     4   -32   -22    -1    -9    14    19    14     0    37    34    16   -18    21    19     8     6     4    17   -25   -28    24    20     9     5    29    36    36   -46     1    30    -6   -32   -23   -24     9   -31    11    25   -13    -9    27    25    20   -10    20    44    -4    -4    11    -8   -17     0   -22     7    -2   -17     8    -3   -27    20    44    76   -21    30    98   100    -2    -5    26     3     8   -16     0    64    22    -5     5    14    49     3    18    34    10    30    10     4    24    -7    -9    11     9   -40   -36   -12     8   -34     2    -2   -18   -15    -5   -34   -30    27   -37   -17   -10    32   -47   -25    -2    21   -23    -2     0   -10    -3    11    -3   -14     2     5    27   -11   -50   -11    -9   -27   -22   -17   -37   -28   -36   -30    10     2   -25   -93   -26   -38   -32   -82   -21   -35   -15   -21   -36   -33     9    18    -9    19    18    38    10     6   -60   -74   -55     1   -52     4   -64    33   -17    -7    33    -3   -80   -15     3   -10   -57   -73   -43    11   -47     5   -16   -13   -14   -21   -13   -10     1   -13     4   -30     7    23    28    17    46    70    69   -40    14     5    28     3    20   -23    -6    27    -3   -16   -11    33    28   -24   -18    15    15    21    13    25    28    18    24     0    13    25     4     1     0    25   -15    21   -22   -46   -19     4   -15    -3   -21   -18  -103   -61    -7   -37   -20   -34     4   -27    -6   -13     3    -2   -13    10     1    14    25    26    44   -31    13    -2    10    -7     7   -26   -34    21    28    32    14    -1    50    24    27   -18    -7    25    18    -4     7    -7    -3    37    -4    10    21    15    16    17    33     6   -19     6    45    -2   -20   -48   -15    32   -37   -15    16    19    30   -22    -5    -2     7    -3     1   -16    -1    -7   -31   -28    -4    32    11     7    35    14     8   -26    14    19     0    15    -3    10     8   -26   -56    -7     1   -80   -79    -9    -8   -12   -12   -45   -19     9    -2    25     9   -33    -8    29    13   -49   -24    -9    -4   -36   -15     4    18    10    -2    -7    -1    42    -5    -1   -29     7   -26    -8   -15     9   -32    10     6   -34   -20   -27    -6    -9    19     1   -20    18    27     1   -17     7    11   -12   -74    -4   -22   -33   -10     8    -4    16     8    27   -26    -1   -14    -5   -40   -31    32   -12   -21   -36   -43   -17   -26   -27   -53   -48    12   -32   -46   -56     5     7   -19   -17    -3   -32   -11    -9    54    14   -32     5    26    23    18    -9    17    58     8    27   -12   -34     3   -38   -39     7   -11   -28   -63   -41   -20   -10   -67   -32   -12    -8   -17   -43    -9   -41   -12     4   -46    -4   -33   -24    18   -30   -31    -3    15   -29   -10    15    -1   -24   -11    25     1   -20    28    48    -9    21    36    10   -33    -6   -15   -18   -10   -35    31    30   -43   -14     9    38    -6   -58    17    33    17   -28   -12   -25   -15   -10    -7    17     3    50    41    43     3    36    32    29    11    16     7     7    25    34    17    -5     1    -3     8   -55   -45     9   -12   -63   -19    19   -41   -30    -2   -19     0   -15   -13    25    10    27     3    20    37     8   -21     6     0    -2    23    -6    -3     3   -22   -15     3    -4    -1   -27   -38     2   -15     4    25    13   -14    22     6    50   -22   -18     0   -16    -1   -62   -55   -45   -15   -10   -18     7    10     7   -75   -49    23     4   -27   -62     6   -14   -25   -22    15     8    44     1    18    32    41   -21    -6    42    26     8    -4    18    42    31     5    -8     1     0     8   -33     8    13    -7   -28    46    40    24   -18    27    27     6     0     1    16    23   -18    19    18    26   -19   -17    10    -4   -18   -33    -2     9   -18     8    -9    -5    26    55    33   -10    30    45    30    -8    24     2    16   -29    13    12    -4   -14   -25   -18     7    -5   -54   -15    16    -1   -25   -22     3    21    -3   -31   -32     0     5    -1   -41    -9     1    24   -40    11     9    27   -11     8    38    44    13   -25     2    17   -14   -28    16    40    -4   -16   -12   -17   -11   -39    37    10    12    -2    32    -7     0    10    16    17     8    19    33    17    19   -14    17    -5   -16   -24   -30     4     0   -30     6     1    22   -29    -6   -37   -13    16    17    -7    -6   -12    11     5     2   -10   -18    33     3    -1   -22     0    13    14   -11   -41   -34    19    19   -49   -51    -1     7   -16   -38    -6    20    -8   -10    17    10     5    -3     4   -38    -5    11    -8   -71   -11     8     0    -3     6   -15   -17    -7   -26   -22   -14     1    36    10    39     2    40    48    11    -7     2    47    10   -10   -30   -14   -21     6    12    33     3    24    42    33    14    44    41    32    25    -8    25    -6   -13   -31     1    32   -18   -24    89    53    10     8    95    86    37    -8     8     3   -32     4    58    54    36    10    47    66    42     9     3     4     1   -26     7    15    26    31    17    28     9    19     9    -2    -8    31    24   -10   -68     1    12    13     5    23   -18    -6    -1    -8    -6     0    20   -12     6     2    23   -32     1     8    -2   -15    46    47    26   -18     5    35    42     5    38    51    42     7    12    37     3    12   -18    -3    12   -14   -40   -37    15    12    21   -12    -5    -6   -23   -21    -7   -14     1   -16     7   -35    -8   -33   -48   -48   -16   -32   -26    20    -8   -44   -27   -26     3     5    19   -11    32    33    15    -6    -9    24    14   -16    13    14    19   -15     1    14     8   -24    19    13     4     6    18    24   -15    27     3     2     5     4    27     5   -34   -42   -21   -34   -22   -35   -55   -64    11    -9   -10   -22     7     6   -10    -6   -15   -73   -43    12   -21     5     0    18     5     7    19    22   -10    15    23     4   -18    24    23    11    13   -49    -2     3    -8    11    14     7    -3    -4    11    -4   -11    15    49     2   -20    -2    33    -8     4   -17    -1     4     4   -42    23    -7   -37    -3    21    34   -52    13    20    -1   -23    -3     3    10   -25   -26    22    46    15    18     3    -9    -8     2     5   -38    15     0   -13   -25     3     9    -2   -12    -5   -11     5     5     0     1     7     0   -15   -24     9   -18    14   -25   -17   -31     0   -15    11    11     1    35     0    23    -8   -16     1   -23    -6    21   -46   -30   -14    24   -61   -22    30   -25    -7   -23   -28   -12    14    21   -13   -44     5     8     1   -45    -8   -12    -8    10   -13    30   -54   -21    -1     3   -22     2    71    81    42    28    46    61    35   -16    19     6     7   -13    20    46   -32    -3    29    25   -21    -3    -2   -16   -43    -1   -17     2    -7   -27   -48   -31   -34    20    -6   -44   -39    27    -2   -16   -13    18   -13   -44   -18     0   -37   -50   -15   -13   -56   -55   -12    -5   -17    63    21   -27    10    13    -4    31    29     7   -11    15    10   -11   -15    13    -1     5   -23   -16   -14     2    -7     3   -10   -21     8    21   -15   -39   -26    21   -28   -23    12    13   -11    19    -1   -22   -40   -20   -15   -23   -34   -11    32    -6     0    20    30   -22     1     1    19    27   -33    -6   -24   -11   -27   -51   -28    27    35    -2    -1    37    19    19   -11    29    -9   -25   -13     4     2    10    -5    40    45    44     4    49    68    61    13    -8    10    17    17    -8     3    20    11    14     1    -5    -5    23     1    16    -5   -21     5    -3     5    25    26    18    35    23    56    56    33    31    53    71    33     3    -6   -45   -28    31   -23   -34   -38   -28   -39   -16   -18   -32   -55   -68   -20    -1    19   -11    -5     9     7    44   -26     1    33    74    18     6    24    18   -14   -12     2     4    -7    -2     9    19    32   -17     1    13     3   -26    -8     5    -3    -8     8    15     2    25    22    15    18   -12    53    34    11     9    32    59    14    40    10    -6    -4   -28     1    30    14   -11   -70     2    27   -54   -84    14    38   -20   -65   -38    27    -9   -70   -48   -15    -5   -24   -27    -3    -7   -25   -23     4     4   -21   -18   -35   -25     8    14   -24     3    38    -8    16     7    41    10     7    -6   -30   -29    -5   -19   -36   -32   -12   -28   -49   -49    -2   -15   -18     4     9   -10   -31   -37     3   -14    14    36   -29    14     3     2   -39   -28   -19    -4   -20     1   -14    11    -3   -22   -30   -58   -25    14    -4   -42   -34    20   -13    -8   -35    -5    -8    -3    -5    -5   -12    -3   -16   -13    -9    -3   -27   -12    -1   -24    -4   -12    -3     3   -22    15    46   -11   -49    77    80    44    -1   -44    -9     0   -17    24     4    -1    17     3    -7   -18    10   -11   -32    15     5    -6     9    23     4     2    18   -19     6     9   -31   -40    22   -14     8   -16     3   -29    12    24     4   -24   -38    -3   -14   -13   -27     0     1   -15    19    37    -8    42    27    60    31    18    15   -18     6     3   -21   -25   -21   -16   -54   -41   -29    11   -70   -26   -27    -9     2   -36     1   -14   -58   -39    -5   -30   -29    33    16    11    22    25    53     4    -1    41    13    -6   -33    -7    29     2   -41    28    29    10   -91    -1    35   -10     2     3    -3     6   -17   -27     1    44    61     8   -30     4     6     1   -28     3    13   -18    11   -17   -47   -28   -58    -5   -33   -20   -28   -41   -54   -54   -27   -16   -23    26    18     6    12     2    28   -10   -10    -3     6    -1    20   -38     9   -20     2   -43   -27    -3    60    23   -38    -2    70    96    37    -4    76    81    28     9     1     7    -5   -30     4   -38   -72   -45     6     3   -38     8    40     2   -12   -23    -4   -10   -13   -29    14    11     1     5    13     2   -26    17     4   -41    -3     4    -6    29     4   -39   -21   -19   -27    49    23   -34    -8    46    17   -21     1    17   -19   -11     5    10    35   -15     0    -2   -15   -36   -20    15    -2   -15    -8    18    17     9     6   -16    -8     9    11   -24     4    15    19   -45   -10    18     0
   -20   -16     4   -41     4   -20    -3    34   -10   -23   -33    -5   -24    -8   -38    19    -7    23    13     7   -39   -88   -74   -30   -56   -50   -11    19    -2   -29   -19    -1     2    15   -28    -3    21    23    18   -11     6    19     6    -8     6   -10   -17    -8    17    13     3    -4    -8     3   -20   -43    -8   -30   -35   -18     5    10     6     4     3   -11     1    -4    31    47    12    35     9    34    38    16   -13     9    -8    15     7   -17   -11     4     7   -33   -71     9    18   -19   -79   -21     0   -57   -44   -35   -13    -3   -44   -44    13   -10     4   -52    -4    10     0   -23     3    -7   -30    -4   -10    26    29   -25   -41     2    25   -10   -62    47    43    -3    20    34    28    24   -41   -52     2   -21   -84   -53    -4    12   -16    -7    23    16    27     0    14    26     0    72   -39    -4    27     1   -22   -42     7    -7   -11    31   -14    -8   -34    -1     9   -24    23     7    29     9   -25   -32   -40   -67    13     7   -48   -41   -16    30    15    -4    20    21     9   -12    -3    28     9   -48   -27    10   -16     4   -15   -25    17    20     8    26    -4    -5   -37    -4     6   -16   -72   -69    14    -4   -34     4   -20   -22   -30    16    -6    14   -20    22     6   -13   -15    -2     3    -6   -29    12    16     6    10     8    49   -13    31    44    -9    54    56    15    -3    25    31   -30   -15    41    44     6    41    60    87    10    38    79   108    15     0     1     3     2    -2    10    41   -33     9    48    15    -5    23    74     2   -26   -17   -81    -5   -22    -3     8   -19    -7     1   -13    22   -13    -4    22    -6     7    14     2    10    10    13     7     1    12   -12     1   -30   -36    -6   -22   -49   -51    -2     9   -15   -16    14    -1   -36   -18   -14   -29   -32    16   -43   -24    15   -15    -6    -5    22     3    24    11     9    21   -18     0    14     6   -40   -23    13    17   -23   -14    -6     6    23     2   -12    -6    -6   -18   -14    -6    13   -36   -24   -18   -11     7   -35    18    -6   -33   -17     6   -22    10    11    13     4    -6    17    17     1    -8    17     7    -9    28   -13   -40     2   -24    30   -24    15    12   -38    20    15   -19   -21    15   -13   -22    11     1    37    27    23    -8   -20    40     9   -13    -1     9     3   -26   -67   -20   -40   -31     1   -61   -40   -14    10    -6    12     3   -13     0   -15    20    10    24    23     9     4     0   -35    19   -11   -57   -52   -18    -6   -37   -57   -24    13    -2    -1    15   -30    44    57    51   -15    31    50    60    -3     1    23    26     6    45    14   -32    12    24    37     6     3    49    46    10    53    29    32    41   -16     9    10     2   -14     8   -60   -19    16     4    14   -51    14    24     8    30   -28   -56    -3    31     6   -60   -45   -14   -26   -22   -69     0    -8    32    27     5     7     8    -3   -12   -13     3     3    10     6   -16   -16     7   -36   -77   -35     4    32   -45   -27   -17    -4   -10   -31   -10   -15   -12     9   -30   -29   -23    -8    13     1   -21   -13     4    29    28    21    18     9     4    31    31   -12    -3     2    -9   -28     1    23     4     4    -8     4    -3   -50   -15    16   -38    30    21    22    25     9   -12    14    -5     7    -3   -22   -33    39    30   -50   -13     4    23    33    13   -15    26     2    -6    13    40     9   -32    26    41    12    -5   -44    20    -7   -18    20    27    -4    48    13   -39     2    -3    28   -32   -35    19    27     7    -1   -31     4     0     3    23     5   -26   -55    26    -2    29    28     0   -26    35    54    -9     3    -2     2   -10     6    74    87    55    10    28    46    43     5     6    -2    -6    27    14   -12     3    24    21    -8   -18    45     9     0    -5    41    39    21   -17    22    15    -2   -11    85    35     3   -64     2    53    29   -16    24    16    15    -3     2   -21    -1   -18   -49   -13   -28   -14    -4   -11   -26   -53     1     6     0   -13    -4    -1   -16    -2    17    60     9    -2     0    51    37   -19    19    11     3     5    -7    16    15     8   -38   -20   -22    -1   -57   -32   -39   -21   -66   -65   -44   -51     5    12    12    12    20    27    33     0     4    20    29    38    -9    32     7    44    11   -19    -4    11    21   -40    -8     8    -2    22     1    10     5     7   -44   -13   -32    -1     2    -7     9    45    53    12    15    55    58    10    19    24    28    36   -31   -69   -42   -29   -27   -67   -68   -17   -14   -12     9    15    14    -6    22    -2    28    -4   -22    -6     3     6    -2   -13    20    35    50    -7    -6    23    52     0     7    -9   -13    -8     0    13    27    -5     7    45    56    53    10    60    43    38    -8   -26    -7    27    -4    -5   -18     2   -44   -24   -17    -5   -33    12     9    -7    -5    -5    10   -13    60    20    11   -19    38     8    -7    -4    25   -12   -13     8   -22   -43   -42   -15    -4   -41   -43   -25    30    26   -52    -8    12     5   -51    -8   -25   -19   -39    13   -17   -21    -9     8    33   -51   -36    -3     7    16   -18     1   -36   -12   -31   -27   -12    36   -44   -32    18    -2   -14     0    -1   -13    -5     9     4    31     7    14    15    -7    -2     3     1     1    -9   -32    -3   -35   -42   -18    -2   -23   -30   -45    19     9   -15     2    13    -4    12    -7     1     4   -18     1   -14     2    13     1    -5   -21    20     6    -9    -6    28    48    -8    34     6    -3    -7     8     1   -33     8    12    21    21    20    63    72    46     8   -13   -22    13   -18    23    10    -7   -44    14    -6    30   -31    -7    -3    13   -13   -19    -3     2    -1    -7     4    12    19   -18    23     8   -46   -34     4     9   -71   -55   -26   -10     8    51    55    20    15    13    20    -3    -2    48    47     7     7   -16     7    -1   -41    16     4    21     5    44   -10     5    33    25     5   -18    -7   -10     0    19     7    18    14    15    10    16     8    -3    55    13    26    17     0     1    12    11   -30   -23   -31   -33    36    36   -17   -14    21    70    35    19    30    -8    25    10    -1    -6    10    -2   -56   -39     1   -28   -54     6     4   -10   -34     8    19   -10   -10    26   -38   -20   -23   -77    -9   -40   -31   -73   -45   -38    -8   -28   -33   -33    19     4     1    21   -10   -35    -7    -6   -28   -29   -20     3   -30   -33    23   -20    -6   -27    -7   -40    12   -50   -55   -48   -11   -66   -61   -42    26    -2   -56    28    18    12     5     9   -32    12   -19    12   -17   -46   -19    21   -23   -28   -17   -33     6    -8   -37    14    -9     9   -53    -2   -20   -93   -42     7    15    12   -13    14     4   -20   -10    -8   -16     2    48   -15    18    37   -19    -2     3    -2     9    10   -19   -33   -27   -47    -2    41    41   -12    12    56    46    14    19    43    56     2    -9   -43   -17     0    25    22   -28     4    -8   -80   -28   -14   -34     4     7   -13     4    -9    -8     5   -31    -9   -10    -8    -5    -5     6    14    -9   -60   -22     9   -29   -36   -41   -51    14    -8   -49   -24    21    -3    16   -16   -23    35    32    12   -15     8     9    -6   -10     2   -49   -30     3   -48   -61   -15    11   -42   -16    13   -23     9    19    -5     0    50    50    37   -17    14    44    35   -16    27    33    23    26    24    29     5    -1    10    12    26    10     3    17    33    -3     5     6     0   -17   -14   -39   -84   -24   -64     6   -36   -31   -36   -15    -8    10   -11     1   -23    -8    -2    17     2   -26    -2     3    25    48   -19    11     1     1    19   -10    11    -9    -1     6     6   -13     9    20    12   -11    13    24    17    -8    22    34     0     5    14   -11     3    -4    16     8     5   -10   -11   -46    -9     4    18   -17    19    11    -6     4     6    -6   -18    51    34    -6    42    45    -1     2    30    36   -25    13    -7     0    -9     2    23    25   -11    -3   -10    14   -21     0    -3   -24   -17    24    -7     3     8    21    43    30     5    18    26    41    -1    -1    -2    10     0    -4   -18   -22    -3   -33     6    18    10   -55   -46    25    31   -26     3    21     0   -29    10    11    -3    14    40    59    24   -31    13     9   -44   -15   -63   -83   -45    15    12     5    15    20    -2   -14     5    25    -6   -26   -11   -15   -45   -80   -21    -3   -36   -43   -25   -57    -1    -3    -1     4   -12   -32   -55     5    -1   -16    11   -21   -26   -14     8   -28   -47   -76   -11     3   -25   -42    30    18   -59   -69    38    -1   -78   -72   -18   -24   -51   -55   -66   -17   -32     4   -12    -1   -12    21     8   -15   -11     0     1     2     0    21    14    14    -4   -44     7    17   -32   -40    -4     6    25     0    -3    50    37    25   -13    54    45     7    -4   -11     1    -3    -5   -26    13    31   -66    -4   -24    -3   -24     8    25   -20   -34    -1     1    -1    10   -16   -65   -42   -62   -14     5     4    13    -6    67    58    22     4     1    13    -6   -11    -2     8   -14     8   -41   -34    27   -36   -14   -50   -49     7   -19   -76   -31     8     7     5    11   -28   -11     6     0   -69   -52   -30     0   -82   -95   -56    -9   -11     2     7     5     4    31     0    36     8     5     7    52     4     4    35    31    -9    -6   -20   -23   -28   -23   -12   -44   -24   -76   -44   -65    16   -24    -2    15   -30   -53   -69   -58   -53    -8   -26   -29   -49     4   -45   -26     7     0   -11    16    -7    -8    -5   -30     2    23   -72    -7    13    27    33   -21    13     9    24    22     3   -16     1    10   -10    82    55    27   -54    37    37    41     5    15    -6    -1    -2    10     6     3     0     9    15   -17   -27  -101   -39    -5    -2   -48   -61    11    -5   -36   -11     6    52    -5   -13    -8     0   -46   -49    16   -21   -63   -41   -22   -16    -7    -1   -18    27    -2    35     4   -23   -12   -13   -34    -6   -41   -29    21    10   -18     1    33    16    -3    11     9    -7   -32     8   -68   -21   -16   -16   -33    10    56    25   -14    13    50    45   -24    52    65    72    10    14     2    28    -4    22    -8    -1     9     3    -8    15    21   -10    -3    -1    13    -8   -20   -23    -4    27     1    39     8    26     5    36     8    13    13    20    42   -18     6    28    36     6    10    13     3    15     1    -4    44     0   -48   -39    73   -26   -71   -61   -10    30     5    -8    -5   -28    -5    16     5   -25    15     2    -1    -5    -6     0    -1   -13     7    -6     6   -12   -43   -19    -7   -13   -44   -75     7     3    14     4     4    -9   -11   -12   -19     9   -68    23    22   -22    17    30    12   -23    25    21     4   -46   -24   -70    -7   -24   -17   -80     6   -19   -18   -48    22   -13    11   -98    -9   -22    14    18     4     0    16     4    53    -7     8    42    37    -2    28    38    53   -12    12    15   -13   -42    31    31    -6    21    25    45     2   -14    20     1   -33    21    14   -35   -28    16    -8   -14   -16   -12    24    53    16    -8    70     6    -3   -18   -50   -49   -45    13   -13     8   -10   -12   -17    55   -32   -19   -18   -11   -12    -5     0    22    17    23    30     7    56    12    29    35    19    -7   -41   -46   -43   -35   -68   -30    -8   -56   -61     9     3   -92   -35     6    22    -8   -54    -7    11    11    -7    -5   -16     5    -7   -71   -40    -4    13   -53   -29    14    -6   -51   -16     5     4    17    10   -23   -33    24    29     6    41    44    58    -7     6    47    14     8    10    12   -15    20     1    29   -12    40    66    53   -19     1    66    13   -62   -61   -19   -46   -45   -48    -5   -47   -24     5    31     1   -25    29    24    17   -23   -21    11    24   -23     8    19    -2    26    -1    40    33    28   -18   -38   -27     1   -18   -25   -19   -47   -34     7    14   -29   -20    14    23    -1    -3    28    27     2
    -5   -17   -11    13    11     8    10     1     4    13    18     9    22    27    46    47    23   -38    -4   -14    18    -4    -9   -50    20   -10    -9     7     9    -6   -18   -22    -7    28    48    17    53    40    59    13   -45    36    55    15     9    16    10    -9    21    23     8    31   -21    33    46     0   -27   -59    51   -50   -21    -6   -38   -44    28    31    25   -16    20   -49    72   -30    26   -38    -5     7     4   -14   -14    27    -5     9    15    10    -4    10     3    -5   -18    15    41   -10    -9   -42   -41   -16     1     2    41    -8     9    23    25     8    22    37    22    16   -10    28    16    15    59     8   -19    -4    26    38    22   -15    -4   -11   -49     5   -37    53    40    -2    46    -1    11   -35    12     9    -3    -5    13    12     7     4    -5     4    25   -23     0    32    40    -1    17    22    46     3    -4    11    34    54     5    35    -1    -6     0    -4   -71   -23     6   -29     7   -18    -8    36    12    24    37   -31    27    10     2    34     5   -31     8    -5    15   -43   -27   -94   -21   -26   -27   -53    -2     0    -4     2     6   -42     4    30   104    25    19   -85     8   -17   -13     0     9    -5    -7    41    56     9    48    40   107    31    19    38    66   -20   -34     0   -17   -14   -20    -5   -12    -7   -18     3   -14    -6   -25    49     6     7   -43   -13    -9    15    27    12     5     0   -13   -11    16    -9   -25    -1   -10   -10   -17     4    12   -20    14   -20   -35    19     8   -14    27    -9    11    25    18    17     4    17    -2     3   -15   -31   -56   -12   -15  -120   -82    34    -8   -20   -17    12     8    -9    -3    -1    -1    19   -14    -6    31    20    -7    18    43     2   -13    43   -18   -39    -6   -49    37    48    41   -18    -7    14     9     2    15    19    22    -5     9     9   -14    -5   -32     8   -19     8     9   -11   -54   -24   -44     6    25    32     7     2     0    10    -3   -47   -26   -13   -27     0   -69   -68    28    38   -96   -30    22    -1    42    20    21   -63   -53    11   -40  -101  -112    -6     2   -15   -82   -11    12    -1     1   -10   -31    14   -13    27   -18   -25   -13     3   -29     2    -9     4   -23    22    30    -3    23     8    16    -9     5     7    17     6    -6   -16    20   -20    -4   -11   -13    -3     1   -43    22    12   -43    -8    -4    -1   -15     2     3    -9    10    13     0     4    -5    -3   -48   -10    -9   -40    -1   -33   -26    36    19   -46     1    28    10   -11    15    15     8   -18     0   -73  -123  -106    29    20   -28   -55    13    13    -6    10     0   -14    -6     5   -33   -26     0    12    14   -54   -15     9     4   -20   -11    -7    -3   -32    -5    25     2    10    -6    -5    -7    21    -9     5   -16    -7   -25    61   -14    40    -6    -8    12    39    23    -3     2    16    17     2    -4   -34   -10   -16   -11    -2    12    26    31    11    39    68   -30   -26   -49   -55    -3   -51   -45   -42    52    87    31   -41    25    43    27    -6    24    15    15   -17    -5     0    18   -15    31    24   -13    11     6   -34   -64    -1   -80   -55   -66    -4     0   -28    -7    35    26    10   -19     1    10    -4    -7    33     3   -10    14    37    -3    20    25   -43     1    16    12    12   -59     7   -19   -49   -14   -59   -25   -62    25   -24   -49    -1     9   -45    -1    -9    22   -99  -102   -22    24   -51   -22   -61    18     2    -8    12   -15   -21   -28   -34     2   -20    14   -53   -40    31    28    -2     2   -15     1    -4    17   -12     6     7   -17    30   -32   -46   -24   -19   -12   -39   -24   -33   -57   -11     8    11     2     3     5    34   -31   -27    -2    -8   -10   -10    15   -22   -17     7    29    -2     9    16    50    18    30    21     3    25   -37   -22    12   -40     6   -13    28    20    42    16   -13    16   -16    15    19   -40    -1    37    11     8    13    -6     2     4   -14    10   -14    -8   -23   -17    11   -11   -20     2    -7   -30    11   -77   -18     2    17     0    40  -107   -21    -9   -27   -63   -52    -4   -32   -16    28    22   -15    20     2     7    54     6     2   -20    17    41   -16     6     4    92    -1   -23    17     9   -16   -11   -12    -9   -43    -3    -5   -49    30     3     5   -40   -29    13     0     6    18     1    31    22    86    28     4   -19    42    21   -15   -19    19    32    24    11    34    -4     9    43     7     4     4     9    -4    -8   -44    14    -9   -16     3    -1     1   -22    25    13    28    -2    -1     4     3   -23    -5   -39   -22     4    -5     2    -7    18   -51   -34    20     7   -41   -37    35     0    20   -19   -27   -16    -2    14     1   -11    10   -48   -16    46     3    -4   -31    -4    18   -44   -18     2    24    -2   -40   -60    37   -12    16   -22   -13   -36   -65   -67    -4   -28    -5   -17    -7   -17    13    18   -34   -49   -28    -9   -74   -87     9    32    21   -13    43   -25    -8     7     5     8    33    17    13    34    37    19     2     1   -14     0    37    20    17   -30   -44   -24    14    -4   -66   -25   -31   -47   -27   -77     8    -2     5    15   -25   -10   -54   -15   -12    -7   -24    27    20   -10    12     8    25    25    16     0   -58    -2     4    15   -17     8    21     0   -12    -8    14     0   -15    27    38     2    -4     7     0    -6   -54    -1   -23    10     2    75   -11    21   -14     8   -17    -4   -17    32    29    31    -8    69    21     8    -7    54     3   -22    -7     6   -27     6     5     2     3     1   -29    12    31   -14    17    14    47   -31     2    23    -7   -18   -12     2   -11   -12     8   -44    56    36   -15   -38    30   -34   -59    11     4    27    -7     2    18   -14    21    30   -15   -15   -15    27   -22     2    20     8   -42     5   -53     8     2    18    15     0     4     1    -7    31    29    11   -13    51     2   -13    29   -68    48    -8     4   -42   -10   -16   -13   -14   -68   -45    -6     9    22     3   -20   -30   -39   -13  -102   -57   -54   -61   -43   -59   -34   -53    34   -13   -20    27    -5    21   -13    -6    17    26   -31    -4    32     1   -39    -7     9     5    -4   -33   -30     5    10   -30   -10   -59   -34   -18    16   -75   -26   -14    29     1   -30    20     4    17    -2   -42    -6    35    14    18     4    22     9   -18   -15     4    32   -23   -67   -15    31   -64    14    83    17    14    15   -85   -36     1    38   -12   -18    20     2     7    14    14   -20    -8    16    17    -1    17   -10   -11   -15    29     3   -21    -7    18    -5   -12    19    67    -9     1   -22    -6   -43    -3    12   -13    21    10    -1   -43     7   -31    13   -41   -22    -7     3   -30    -4     8    -5   -14    12   -18     9    15    27    12   -43   -16    34    29     9    -2   -54   -18    -3    -9    -8    -3   -24   -24    33    30   -33   -48   -38    23    11    10    -3    10    -1   -25   -15    20    16    11     7   -12   -62   -20    -8   -31    -4   -43   -27   -22    -3   -18     4    -4    13    -1     4   -10    16    45   -11    20    -2    33   -55   -42     8    -8   -53   -29     3   -10     0    39    -7   -37   -26     7   -15   -44     8    16    22   -24    10    -2    14    -2   -47   -25     7     3    -6    11     7    14    23    30     6    46    30    -8    26    11    -8    -7     8   -56   -31     5    17    38   -51    -9   -12    13   -10   -23     1    -3   -53   -90   -16   -12   -71   -36   -11   -65   -74   -36     0   -10   -10    12   -18   -59    56    40    17    -1    -8    38    12    11    22    17     1     3    35    -1    31   -45   -38   -10   -17   -83   -78    -1   -31    38   -12    28    25     8   -20    -7    16    19   -25   -26    20   -30  -122   -35    20   -42   -47    -9    29   -14   -31    -4    14    43    76     2    18    71    68   -10    16    21    61   -14   -10   -13    14    -9    -8   -18    -5    -1    14   -46    15    12    61   -61  -115    37    20   -11     3    16    -9    -6    58    19    11    67    45    32    -6   -11    64    20     0    -1    21     7   -34    13     2    -3   -94   -84   -83    16   -38   -20  -125   -37    11    -8   -33     9    18     4     4    10    46    40   -36   -67   -29   -13   -58   -29   -11   -28    -7   -20   -27    -7   -10    -9    17     0    -3    22    16    10    -4    24   -11     7     4    40   -14     9   -33   -25   -21   -79    42    -6     4    39     0     6     4   -47    -8    12    34     1    11    23    14   -59   -59   -12   -16    12     4    22    -3   -11   -13    15    25     8    12    26    -8    35    -1    20     1   -15   -50     1   -19     7   -18    28    37    26    18    60    11    -3    14    28   -13   -17    19     1     3   -11     2   -17   -15    15   -28   -33    17   -16   -66    -3    20   -23   -27    22    -2    13     2    18   -21    -9   -20   -27   -53   -74   -55   -73   -58   -83   -32   -28    10     5    -4     2    17   -82   -56    -3   -10   -31   -32    21    -8    -8    18    10     0     6     5     4    24   -12     2     2    14    -9    16   -11   -15    -6    14    -1   -35   -23    20   -29    12    23    21    16    33    35    51    27     8     4    -1    22   -15    -6   -17    16   -13    10    -4    -6    13    18    31   -27     7     5    -1    30     1   -16   -10    -2    37    23     4     9    -1   -57   -61   -72   -19   -68   -67   -60     5   -42   -73   -40    20     7     2    12     7    32    -2     7    -1    26     1    11   -21    42    74   -24    23    31    35    58     6    16    14    26    21    22    16    18    23    15    22   -13     9    -5     3     2     8    51    28    22   -32    64   -17    22     6   -37   -29   -12     3    28    29     2    11  -113   -13   -74   -32   -52   -35   -38    10     1    -2     1    -5   -12    -7    -8     4   -10    -3   -36    39    33    34    21    -8    20   -11     1    -2   -18     0    -4   -36   -23    15   -10   -29    -9    23   -26    10    19    12    17   -31   -31    39    -3   -12   -61   -19    28    -7   -21    23    26    10    -5   -10    -3    -5    29    19     1    23    26   -21     0    -9  -100   -34     5    34   -34   -11    14    -1    -1     2     1     1    15    18    16    24   -15   -37    -1     1    26    11     8     2    24    41    -2    -7    -5    34    25   -16   -39   -51   -17     9   -28    10    25   -62   -86   -68    48   -15   -40   -57   -22   -13    22    37    -4     9    -2   -21    22   -19    10     2    -7   -18    45    38    -6    39     9    46   -12     4    33    37     5     0   -25   -15    -9    -9   -58     9   -25   -52    23   -12    25    24    -6     0     5     4   -55   -25     7     2   -63   -63   -24    15    -1   -23   -28    -1   -38   -33     0    19     1     6     8   -13    12    35     0    -4   -64    -8   -28   -23   -55    24    -9    18   -10    26     8    12    11    18    33    35    19    18    -5   -31     0    45    26     7    33    -5     9   -21    35    12    -2     6    15    31     7    -8    46    23    -1   -27    57    44    23     8    -6    42    43     6    -2    14    -7   -15   -74    24    44   -20    22     9     1    -4    -5    10    13    16    10   -48    21   -10   -11    -5     1   -37   -14   -43    25     0    36     7     5   -18   -24   -16     5    12   -11   -17     6    -8   -10     7    -2   -25     2   -30   -73    -2    21    28    -9    14    18    26    23    27    33     7   -11    35    47     9   -40   -27   -23    -2   -31   -27    25    18    -2    -3   -41   -21    10     7   -36    -6     7   -24   -40     7    -5   -11   -26   -15    -7    14    -7    -9   -15    29   -30    14   -34    11    -3   -38   -60   -21    12   -44   -80   -14   -50     0    -9    -7   -51    10     1   -20   -23   -20    14   -17   -13   -96    12   -62   -26    37    54   -24    21    28    30   -21   -16    27   -13     1    -8   -26    -2    -2    68     5    -3   -20    -5     4   -61    -9    25     3   -18     5   -10     0    -4    19    13    -8    20    21    29   -82    31    14    -7    21   -28    22    13     7   -23
     7    12    13     9   -12     9    13     2    11     8     7     1     3    45     7   -24   -12   -13    -4    -8    16    25   -21    35    13   -16   -11   -20    -6    15    14     8    11   -35   -39    -6   -37   -38  -116     1    17   -57   -58   -20    -7    -8     1    -8    -5   -33    -1    -9    20   -22   -46    27    -7    33   -72    20   -13   -29   -19   -18   -15   -25   -13    22     3   -22  -109     1   -14   -46   -26   -18    -7   -54   -13   -41    10     0    -7     2   -12    10     2     6    20    -4   -41   -26     5    32    21   -34     2   -16   -47    21     0    21     0   -11    -9    14     8    11    -5    -4   -11   -16   -34   -41   -20     8     2   -42   -43    15    39   -34    -5     6    17   -34   -56   -16   -14    18    -5    34    25     9     4   -20    28    12    14    -4    -1     3   -18    -4   -19   -28   -15    -5   -23   -21   -14    34    16    -6    19   -37    20   -16    11     5    -3     2    34     8   -10    19    -6     2    13   -15   -15    -6   -16    45   -35     1   -18   -33   -34     8    -5     5    -2    30    27    81    50    33    21    23     3   -14    -7   -23   -13    17    11   -21   -79   -52    -4    38    -4    26    12    -4     2     0    11   -27   -29   -19   -28   -51  -118   -42   -29   -29   -34    11    11    19    13     6   -10    -7   -12   -10   -10    -3    16     9    20   -30     9   -11    31    24    -9    -7   -16   -14   -24    -2    15    11   -31    -9    15    19   -10    -3    15    -1   -17     0   -11    38    37    16    -3    29   -24    15    13   -10   -12   -15    10    14     8     7    19    39    41    25    18    70    23   -11    10   -36     0    -1    -6    10    -2     9   -16   -11     2    22   -13   -20   -10   -34   -36    -6   -35   -77    -6     3   -28    31   -36    -8     4     5    17    22    11   -13     4    11    19     5   -20     8    28   -10   -22   -58   -18   -45   -20   -81   -35   -10    61   -43   -57   -70    12     5    -4     3   -22   -28     5   -15    -1   -19     4   -14    24    -3    44     9    25     5   -12    -8    -3    46    36    -6    34     1    34    18   -21   -28    -4     7     8     6    -3     6    33     6    18     9    36    38     9    16    26   -14    -5    -1   -12   -26   -11    14    -3    15     9    13    -4    30     6    -9    11   -12   -24    -8     3     3    -6   -11    26    40    14    -2    46    35    43    10    52    32    43     5    19    10    22    -2    -2   -20    12    -3     8    38     6    -3     1   -28   -18    45   -19    -9     9    -6   -12   -16   -11   -13    18    54    35    42    -9     5    -6    21     5     0     0    -4     7    -2   -10     7    16    13     4    -7   -19     6    39    -9   -17   -30   -54    -4    25    12   -23   -22    15   -39    -6    27     1   -20    -9    44    26    14    39   -33    24    -4    11    -6    -1    24    24     4    11    21    40    30    -8    33     8    -5    -1    10    -5   -10   -43   -12    -8   -68    29    12    15    12    -4    49    23    17   -54   -86   -14    32   -23   -52   -32    -4   -31     6    -6    19     3    -7   -13    13   -59    -9    15   -24   -58   -56    -8   -48    38     5   -44   -73    -6    26   -18   -17   -15   -28     4     3    -5     0     7     0    -2    19     3    28    -7   -19   -27    13     2    17    -1    -3    16   -11     3    26    -8    14    14    -3   -15     5    71     4    10    -5    -8     8   -39   -11     2    16   -31   -51   -34     2    12    -2     0    -9   -10   -18     9    17   -22    38   -20    17    -6   -52   -30   -39     9    21   -19    -5    -9     6    -3   -19    -3    -5    58    32    17     1    18     3    17    47    40    -5    -1    -7    -1    -5    14   -45   -31   -24    -2   -42   -48    -8    -6    21     2     0   -56   -25   -14   -18   -36     1   -22   -24    16    -2     8   -10    -6    28   -10    39   -24    -4   -34     8    14   -10     2    -3    17    44    10    -7   -21     7   -19   -33   -17     9     2   -11    10    18     5    23   -21     0     4   -28   -10     2   -40     2    14     2     5     7   -35     8    -6    28    -1   -17   -16    11    10   -21   -56     1    14   -41    -1    -8   -25     1    12    18   -10   -29    48    16    19   -35    31    48   -18    -8     5     7    15    -1    -8   -24     1    17   -65   -14     4    16    22   -46     2    12     7     2   -55   -48   -74    11    -9     8   -25    -3    -5    28    -2   -38   -15    -4   -13     8    23    -4   -11    -4    29     6    15     7    29    -8    12   -16    -3    14    22    40    22    23     6     7    40    18     2    -5   -24    19     9    -6    -2    -4    23    -4    42    12   -20    12    26   -28  -125     5   -12   -26   -14    21    -8     6    22     9     4    11    11   -27     7   -22    -5   -56     8     5   -32   -34   -14   -11    28    28   -13    14   -24    -6    -2    -5    18    17    -1    -4     1     6    -5    17   -12    -3   -43   -37   -19    16    44    35     7   -33    -6    17   -21    15    16    42     4    -3    -7    -7     2     8   -56   -47   -29    14    -4   -48   -24     7     3    -5    21    -5     2   -15     1   -29    -5    31     1    20    -5    -2    15     3    48    29    62    34    22    10    22    32     2     5    11    -6    -1     1    12     0    37   -43   -31   -39     5     5    -7     8    -8    32     0     7    28    13   -13     2     9     4    20    10    12   -16    61     2   -66   -69    42    10     1   -36    -6     4    24   -39   -19    -8    -2   -71   -23    -5     6   -69   -15   -20    24   -48   -11   -20    -3    10     1     4     7   -27     1     7   -18   -31   -54    43     9   -27     6    -3    19    -6     9     6   -36   -49   -86   -70    -7   -61   -83     9    40    21     6     5    -5     1   -10    -7   -57   -24    -7    -6    17   -38   -10    -1   -37    -1    52    -4    27     1     4   -25   -39    -4     0     7     9   -11    -2     0    17   -22    23     7     0    -3  -110   -12    -7   -35    -2   -19   -11   -52    34    50    14    -4   -10    -1   -27    -1     0     5    38    40    14    25   -12    16    12    12   -24    28     4    -9    36     6    23    16     6    -8    10    -3   -28   -19     3    -3   -21    36    12    17    14    -1   -10    29    -2    75    18    47    22    -1    15   -50    -8   -13    -5   -11    12     8    16    45    23     2    -4    -2     8    25    17    39    -6    11     3    35    49   -10   -42    -9   -25   -33     7   -14    16    80    23   -12     6    31    18   -10     4     8     9    14    -6    22    17   -11    -7   -27    23    25   -14   -41    22    -5   -16    -1     7     0    -7   -80     2    14     5    -5    16     7    -3    26   -17   -19     4    36    16    11     4    46    39    35    23     4    -5    -3    13   -13   -29    -4   -10     1    -2     9    41   -29   -98    16   -13   -57   -13   -38    -3    18   -11    -3    22    21   -22     0    -7   -38   -12     6    -7   -46   -66    -7    -1   -21   -31    -8    -7     3     3    -8    33    35    15    29   -33    77    14   -12     7     3   -15   -30    -2   -10    -2    -6    14  -112   -19   -36    27   -27    50   -19     1     2     4    -9    13    30     2    -7     2    52     6    20     0    67    39     4   -15    -2   -18    -7   -13   -24    48    33    11     1     8     3    32     3   -23   -19    21   -18   -24    11   -12   -17    13    16    11    -5   -16   -34    -7   -98   -29   -15    -6   -47   -36   -13   -32   -63   -33    34    12   -44    -9   -47    13    15     7   -14     6    -2   -16    -6    19    77   -36    -8    -1    19    27    -4    11    17    10     4     2     5   -14    10   -15    22     3   -16     3    56    47   -14    45   -21   -20     1    -8    -9    19   -23    -1   -29    -8     3     4   -18    37    64     6   -32   -44   -64     6    -5     4    -9   -17   -54   -91   -10     3   -84   -82    -1   -31   -35   -64     1    -3   -14   -14     3    -4    15   -13    -6    18    -4   -33     2   -66   -23    -8    -7   -20   -42   -56    15     5    26   -63   -11     9   -81   -85   -42    22    19   -79     2     1     4    11    -4     6     0     3    -3    31     9    22   -19   -18   -32     4     8    -8    17    22   -16     2     2    11    -3   -39   -71     7    15    52    31     7    -7    11     6   -13    20    26    13     2     9   -16   -12   -20    -7     8    28    -1   -24    41    42    42     7     1   -44    -2   -16     3    30   -49    -9    -9   -33     5    -1     9    68    38    41   -14    27    20    21    16    -9     6    33    32   -29   -15   -31     3    -4    32   -28     9    15     3   -21     3   -25     5    -3    -6    20    42     7    -6     5    22   -19   -31    17     2   -29    -9    18    20    29   -11    35     4    11   -13    16   -11    34    15    25    54    38    -7    32    82    22   -13    44    36   -17    19    21    25   -30    -9   -33   -16    15   -40   -39   -11    47   -20    -6    -1    10     6    -1     3     9    -9    94    62    35     2    55    47     5   -10    26    28    12     4     3     9    11    -7    38    18    17     9    53    14     3    23    10   -39   -21    25    10   -20     6   -17     5     0    19   -41     5     1    -2   -14     6    34     3    -2    34    48    17    -6     2    13     8   -22     4   -31    14   -17   -14   -15   -25    -5    -6   -24    -8   -14   -23     0   -12     6    28    46    14     4    34    24    26   -23     1    -7    28     7    -8     2    -5     0   -21     8    -2    10   -13     6     5   -22   -33   -57    10     1   -11    -1   -28    12     7    -2    -3    -7     2     6     6   -28    -4    -1    15    -9     7    12    16   -30   -39    -9    -7     4   -80    -6     1    -9    -8    -7     1   -15   -28   -32    -6   -11     5   -31    59    28   -26   -14     5    -8    -6    10     6    10   -13    -8     0    -1   -17   -35    46   -19   -36   -61   -48    19   -36     6    -6   -24    25    11    -3    53    40     8     2    13    35    12    -6   -14     0   -22    -4    34    32   -24    13     8    22    25   -18    13    23    -6    -1    -8    44    46   -14    11     5    -5   -20   -12   -55   -19    -6     8    57    19    16   -45    26    13   -12     2     3     9     5   -15     2    -1    -6   -33    21    49    -6     5   -13     1    -5   -34     2   -11    -6   -17   -10   -55   -25   -19   -24    -6    -7   -42    27    -6    -8     7    74     5   -42   -12    18    56    26   -20   -15   -25    -8     4     4     5   -13    -3    -9    -8    -1    28   -31   -20     3    -8     4   -28   -25    31    17    13    20    -1    29    15     3    27   -18   -10    65    35   -90   -51     0    -2    13    11    12    -6    41    27     1     5    66    60    21    12   -16     0    -1    -9     1   -10   -15     0     5    24     7    30    38    13   -25     5    55   -23    -3    23     9   -27   -11    29    26     6     6    17    -1     6   -25     4    -3    -7    14     8     1   -14   -29     0    -7     9     1    10     2    21     4   -10    -1     6     9    -9   -27    -5     5     6   -54   -46   -11    13     0   -28   -18   -15    14    11     6    17    42   -23   -27     1    -9   -22    -9     2    16    23   -16     3    32    52   -23    12    14     9    14    50    21    52     0    16    15    11     7   -16    31    31     1    -3    21     8     7    -1   -10    -6   -25    -5   -19    11    12   -19   -70   -62    19    11    12     8    18    -1    -6     9     9   -21   -35   -16    12    45    10     5    18    15   -26     2   -15     3    49    27     9    -8    33     8    11    19    -8   -21    -9    -4   -29   -31    11   -16    -7   -20    -5   -15    14   -55     3    -5     1    24    28    29     0    40    49    -2    20    -9    19     4     2   -16    15   -17   -51    -7    23    10   -75    45    23    69    23   -32    -3    47   -33   -21     1    12    17   -15    10   -22   -11    -6    -6    16   -40    -5    30    41    22    17    27    23    -2     1   -15     2    15     0    11     6    21    30    23    -6   -53   -29   -42     7   -47   -94   -28     7   -28     9    26
